{"weights":[[0.4804134075920058,-0.47897213532935384],[0.02603984964508188,-0.027828703858924872],[-0.4067401483565339,0.4055942226914685],[-0.22896033404948718,0.2303027787746854],[0.4566104022802804,-0.4575911148592297],[-0.039073381043451344,0.03928234205958238],[0.08737891375724272,-0.08501662022997446],[-0.24712011178354637,0.25035389047737855],[-0.11839547095621392,0.11752057533609961],[0.10849396499330077,-0.10566645548990204],[-0.34831515090322146,0.3514233632231909],[0.08482657298768304,-0.08625910540351588],[-0.13167854104517893,0.1271107750787751],[-0.012689412209290304,0.011441260892028349],[-0.11813518313353363,0.1168213987884007],[0.05172308039698115,-0.0479886679876914],[-0.14706451317976763,0.1456744905564299],[-0.20043964352277352,0.20084464692787873],[-0.009967059902609696,0.014069196506250714],[-0.00730226907875517,0.008313074637453344],[0.5524135966024557,-0.5546704151314847],[-0.3284364651872875,0.3291998034640675],[-0.2668339294972411,0.265067541485816],[-0.026350193034179487,0.027280841575494486],[0.17474707169323977,-0.17498299136383796]],"b":[0.29867682124619777,-0.29780840459069563]}