{"weights":[[0.40844680174755976,-0.44558859218320307],[0.036415243151000753,-0.027876800848123023],[-0.3093270014275619,0.3086543867752002],[-0.22904588187179473,0.20799349661990485],[0.36016167438214974,-0.31455029424054554],[-0.09123197347424236,0.10592731628527041],[0.04685388764716025,-0.02213927901589438],[-0.18777753600762945,0.20384514162601652],[-0.10906204934401006,0.13401460721172698],[0.020336130345133263,-0.006829048620513681],[-0.33036880262153684,0.37789323114072626],[-0.005501592066005961,-0.016484380127715997],[-0.12843260697166967,0.11047540831159441],[-0.03557242396199686,0.028810907495967153],[-0.11013954001823442,0.08885222480664456],[0.0792809749119785,-0.06232405708225727],[-0.09552602605826274,0.06870893984290716],[-0.17450155824628608,0.15239302699610213],[-0.023230455635556896,0.03957917490975549],[-0.01539892304530885,0.0131768224885398],[0.5036656816696963,-0.4960206311696974],[-0.2570938865342319,0.2530644981715051],[-0.2982892137088196,0.2960265648737659],[-0.04059373966207078,0.10161529462039998],[0.1963145264033731,-0.16661975696944384]],"b":[0.1710264985502452,-0.04542648781185252]}